digraph Tree {
node [shape=box] ;
0 [label="X[0] <= 1.5\nentropy = 0.8\nsamples = 5000\nvalue = [3786, 1214]"] ;
1 [label="X[0] <= 0.5\nentropy = 0.783\nsamples = 4025\nvalue = [3088, 937]"] ;
0 -> 1 [labeldistance=2.5, labelangle=45, headlabel="True"] ;
3 [label="entropy = 0.78\nsamples = 1928\nvalue = [1482, 446]"] ;
1 -> 3 ;
4 [label="entropy = 0.785\nsamples = 2097\nvalue = [1606, 491]"] ;
1 -> 4 ;
2 [label="entropy = 0.861\nsamples = 975\nvalue = [698, 277]"] ;
0 -> 2 [labeldistance=2.5, labelangle=-45, headlabel="False"] ;
}